tree
version=v4
num_class=1
num_tree_per_iteration=1
label_index=0
max_feature_idx=9
objective=binary sigmoid:1
feature_names=UCEIS2 UCEIS3 StenosisYes CdifficileYes MontrealClassificationE3 ModSevereHistologyYes PolypYes Ageatonset Duration ESR
feature_infos=[0:1] [0:1] [0:1] none [0:1] [0:1] [0:1] [8:78] [1:329] [1:140]
tree_sizes=1455 1474 1584 1579 1584 1483 1389 1378 1488 1488 1377 1586 1383 1387 1379 1269 1064 1491 1594 1693 1382 1383 1592 1481

Tree=0
num_leaves=13
num_cat=0
split_feature=5 9 7 0 8 9 8 9 7 8 8 4
split_gain=28.2161 11.8315 14.8148 10.4012 4.9546 5.75771 4.44343 1.54148 1.2132 1.18929 0.293457 3.55271e-15
threshold=1.0000000180025095e-35 38.500000000000007 42.500000000000007 1.0000000180025095e-35 95.500000000000014 33.500000000000007 21.500000000000004 15.500000000000002 28.500000000000004 38.500000000000007 23.500000000000004 1.0000000180025095e-35
decision_type=2 2 2 2 2 2 2 2 2 2 2 2
left_child=4 2 6 -4 5 7 -2 11 -8 -3 -9 -1
right_child=1 9 3 -5 -6 -7 8 10 -10 -11 -12 -13
leaf_value=-1.3359136298714789 -1.2984066518963671 -0.72329965627797821 -1.0247446274112884 -0.60534292844320481 -1.0162889479966093 -1.020855014880536 -0.9858485021037644 -1.2581213792564316 -1.1339529792362593 -0.85855209200641358 -1.18588571797103 -1.3359136298714795
leaf_weight=4.7610189765691846 5.3323412537574795 6.8558673262596113 5.141900494694708 4.3801374584436417 4.3801374584436408 3.8088151812553397 3.9992559403181058 5.141900494694708 4.9514597356319427 4.1896966993808746 3.9992559403181076 7.0463080853223801
leaf_count=25 28 36 27 23 23 20 21 27 26 22 21 37
internal_value=-1.06711 -0.945677 -1.02506 -0.83182 -1.21236 -1.24705 -1.15388 -1.28818 -1.06778 -0.774602 -1.22652 -1.33591
internal_weight=63.9881 34.8507 23.8051 9.52204 29.1374 24.7573 14.2831 20.9485 8.95072 11.0456 9.14116 11.8073
internal_count=336 183 125 50 153 130 75 110 47 58 48 62
is_linear=0
shrinkage=1


Tree=1
num_leaves=13
num_cat=0
split_feature=5 2 8 7 8 4 9 8 7 9 7 9
split_gain=18.2786 8.19562 6.30572 6.84308 4.17592 3.59918 2.9793 4.66848 3.70769 1.48043 0.211308 0.000156723
threshold=1.0000000180025095e-35 1.0000000180025095e-35 22.500000000000004 45.500000000000007 36.500000000000007 1.0000000180025095e-35 26.500000000000004 52.500000000000007 37.500000000000007 17.500000000000004 35.500000000000007 11.500000000000002
decision_type=2 2 2 2 2 2 2 2 2 2 2 2
left_child=4 2 3 -2 9 -6 8 -8 -4 11 -11 -1
right_child=1 -3 6 -5 5 -7 7 -9 -10 10 -12 -13
leaf_value=-0.25258356904146551 -0.20601272710083407 0.29157939901702817 -0.078020027232152719 0.11603617180639512 -0.17367506193914486 0.05686336687221763 0.34680415598716891 0.059443216273563554 0.16466089363601588 -0.16220724175180798 -0.095293334452365874 -0.2543667069589971
leaf_weight=4.7804398834705371 6.5263852626085299 6.582032859325408 5.1922091394662875 4.4310025572776794 4.4940047115087491 6.819045290350914 4.3588469177484495 4.6996296048164368 4.8896990120410919 3.9755076169967642 3.5946396291255951 3.3555814325809479
leaf_count=29 36 32 27 21 25 37 20 23 24 22 20 20
internal_value=-0.00253153 0.0894197 0.0452097 -0.075781 -0.127359 -0.0347159 0.114474 0.197718 0.0396796 -0.19409 -0.130434 -0.253319
internal_weight=63.699 36.6798 30.0978 10.9574 27.0192 11.3131 19.1404 9.05848 10.0819 15.7062 7.57015 8.13602
internal_count=336 183 151 57 153 62 94 43 51 91 42 49
is_linear=0
shrinkage=0.2


Tree=2
num_leaves=14
num_cat=0
split_feature=5 1 0 7 8 7 7 8 9 9 9 8 9
split_gain=12.1512 7.37342 6.74265 4.41806 3.87152 3.64988 3.54464 5.60231 1.86248 1.63878 0.984584 0.00696865 0.00064273
threshold=1.0000000180025095e-35 1.0000000180025095e-35 1.0000000180025095e-35 33.500000000000007 99.500000000000014 45.500000000000007 49.500000000000007 95.500000000000014 24.500000000000004 22.500000000000004 32.500000000000007 36.500000000000007 11.500000000000002
decision_type=2 2 2 2 2 2 2 2 2 2 2 2 2
left_child=6 2 3 -2 5 8 7 9 -4 11 -5 12 -1
right_child=1 -3 4 10 -6 -7 -8 -9 -10 -11 -12 -13 -14
leaf_value=-0.24084645530783488 -0.26850780963933746 0.29081894755316806 -0.12164797570382722 -0.069534467070815273 0.27655426959717061 0.16912158420413254 0.046501723553587469 0.056966522769803588 0.064465543664767727 -0.11322262921444159 0.061709224672492305 -0.25345173500324852 -0.24482474358511169
leaf_weight=3.0983221828937619 3.5864706337451926 5.1391328126192084 4.20970267057419 4.7727168649435026 4.2057113945484152 6.8447324335575095 4.6315838843584052 4.2559879869222632 4.397513210773468 5.5909957140684119 4.3890306055545807 4.1075562238693237 3.41468845307827
leaf_count=22 20 25 24 24 20 29 28 22 21 33 20 25 23
internal_value=-0.00376518 0.0682547 0.032959 -0.0803265 0.106426 0.0601205 -0.111497 -0.147251 -0.0265607 -0.200864 -0.00666081 -0.247001 -0.242932
internal_weight=62.6441 37.545 32.4059 12.7482 19.6577 15.4519 25.0991 20.4676 8.60722 16.2116 9.16175 10.6206 6.51301
internal_count=336 183 158 64 94 74 153 125 45 103 44 70 45
is_linear=0
shrinkage=0.2


Tree=3
num_leaves=14
num_cat=0
split_feature=4 9 8 8 6 7 9 8 9 7 9 9 5
split_gain=8.38852 8.7717 8.12946 4.46975 5.96487 4.20996 2.76497 2.52676 3.88209 1.58341 1.15062 0.181604 0.0135898
threshold=1.0000000180025095e-35 29.500000000000004 95.500000000000014 13.500000000000002 1.0000000180025095e-35 46.500000000000007 16.500000000000004 60.500000000000007 47.500000000000007 42.500000000000007 14.500000000000002 24.500000000000004 1.0000000180025095e-35
decision_type=2 2 2 2 2 2 2 2 2 2 2 2 2
left_child=3 2 5 11 9 6 12 8 -3 10 -5 -1 -2
right_child=1 7 -4 4 -6 -7 -8 -9 -10 -11 -12 -13 -14
leaf_value=-0.20367648291935356 -0.23637085565665897 0.097387841662452318 0.20844630983482346 -0.25830508628089643 0.17438413898207075 0.044330682380369808 -0.045495780913091505 0.04258123305884351 0.32688797368174899 -0.027015484697488042 -0.095037473697282882 -0.26936039726954791 -0.25427876248936016
leaf_weight=3.21297359466553 3.8416561186313682 5.9690364897251147 4.4837632328271857 3.392427481710909 3.8071815967559806 5.8865446448326102 4.7212980538606644 5.1281420439481726 5.8255907297134399 4.9506127387285233 3.5161620527505875 3.5374564975500107 3.0335334092378616
leaf_count=21 30 29 22 22 20 31 29 23 26 24 20 20 19
internal_value=-0.0046029 0.0515653 -0.0318043 -0.102046 -0.0434229 -0.0934199 -0.163344 0.159784 0.210742 -0.113346 -0.175209 -0.238097 -0.244272
internal_weight=61.3064 38.8896 21.9668 22.4168 15.6664 17.483 11.5965 16.9228 11.7946 11.8592 6.90859 6.75043 6.87519
internal_count=336 209 131 127 86 109 78 78 55 66 42 41 49
is_linear=0
shrinkage=0.2


Tree=4
num_leaves=14
num_cat=0
split_feature=5 6 8 4 7 9 8 9 0 8 7 7 9
split_gain=7.5296 4.59721 5.15378 4.29221 4.03297 6.97423 2.74633 2.55059 2.39394 1.51701 1.40696 1.21995 0.0174588
threshold=1.0000000180025095e-35 1.0000000180025095e-35 35.500000000000007 1.0000000180025095e-35 42.500000000000007 20.500000000000004 36.500000000000007 22.500000000000004 1.0000000180025095e-35 67.500000000000014 51.500000000000007 24.500000000000004 23.500000000000004
decision_type=2 2 2 2 2 2 2 2 2 2 2 2 2
left_child=6 3 -3 7 5 -5 10 -2 9 -8 11 -1 -13
right_child=1 2 -4 4 -6 -7 8 -9 -10 -11 -12 12 -14
leaf_value=-0.076655666534356112 0.027378960279382365 0.020364525732252413 0.3129781925668772 -0.21437283340635541 0.17005691153245106 0.12430554296209027 0.016542074907819903 -0.18428208686512226 0.10989354126870042 -0.17290136567077377 -0.034057893001748697 -0.23194988007254702 -0.25232374913364081
leaf_weight=2.4692710712552088 3.7777817845344561 4.7389174252748472 4.8942587822675705 4.2312392070889491 8.1485660672187787 5.7198416441679001 2.9871658310294134 5.7335559725761414 3.6381724998354912 3.8959688916802406 2.7153774201869956 4.1175940036773682 2.8447098433971405
leaf_count=20 20 23 21 27 35 27 21 30 20 21 17 36 18
internal_value=-0.00524453 0.0500698 0.169031 0.00856562 0.0657286 -0.0197019 -0.0961265 -0.100213 -0.0213275 -0.0906861 -0.160915 -0.197438 -0.240274
internal_weight=59.9124 37.2442 9.63318 27.611 18.0996 9.95108 22.6683 9.51134 10.5213 6.88313 12.147 9.43157 6.9623
internal_count=336 183 44 139 89 54 153 50 62 42 91 74 54
is_linear=0
shrinkage=0.2


Tree=5
num_leaves=13
num_cat=0
split_feature=8 1 0 7 2 7 9 5 7 7 8 8
split_gain=6.47927 5.79881 7.69467 6.46727 4.30274 3.96149 2.56413 3.41313 2.46485 1.09212 0.185939 0.0268581
threshold=2.5000000000000004 1.0000000180025095e-35 1.0000000180025095e-35 45.500000000000007 1.0000000180025095e-35 27.500000000000004 47.500000000000007 1.0000000180025095e-35 42.500000000000007 33.500000000000007 37.500000000000007 23.500000000000004
decision_type=2 2 2 2 2 2 2 2 2 2 2 2
left_child=-1 2 3 9 5 -4 7 -7 -9 11 -5 -2
right_child=1 -3 4 10 -6 6 -8 8 -10 -11 -12 -13
leaf_value=-0.22935037323654403 -0.23017729937650011 0.18618718691335212 -0.14042682545381893 0.07198227685196569 0.23220508629503489 -0.14076354599761307 0.19984772580432822 -0.032931060787314212 0.17945053039311265 -0.12849087776760279 0.009963370701112282 -0.25650820786199441
leaf_weight=4.7487810254096976 2.4089862480759638 6.8539534136652938 4.6834873259067598 3.7551890537142745 4.7718180119991294 3.6671808436512956 4.3460441082715979 3.8254893943667412 5.0997582674026489 5.7466084361076355 3.9863952398300171 4.3433035686612129
leaf_count=32 23 34 30 20 22 28 19 21 21 38 20 28
internal_value=-0.00546205 0.0144152 -0.0108306 -0.103602 0.0603124 0.0223768 0.0673921 0.0216774 0.0884207 -0.192575 0.0400467 -0.247114
internal_weight=58.237 53.4882 46.6343 20.2405 26.3938 21.622 16.9385 12.5924 8.92525 12.4989 7.74158 6.75229
internal_count=336 304 270 129 141 119 89 70 42 89 40 51
is_linear=0
shrinkage=0.2


Tree=6
num_leaves=12
num_cat=0
split_feature=8 5 6 4 8 9 4 0 9 8 7
split_gain=4.77748 3.88271 2.7926 3.14835 3.25626 3.08876 2.72398 4.95469 1.73201 0.754754 0.693664
threshold=2.5000000000000004 1.0000000180025095e-35 1.0000000180025095e-35 1.0000000180025095e-35 38.500000000000007 38.500000000000007 1.0000000180025095e-35 1.0000000180025095e-35 22.500000000000004 47.500000000000007 40.500000000000007
decision_type=2 2 2 2 2 2 2 2 2 2 2
left_child=-1 6 3 8 5 -5 10 9 -3 -8 -2
right_child=1 2 -4 4 -6 -7 7 -9 -10 -11 -12
leaf_value=-0.21130335462628211 -0.23278053925055558 0.02178862436844748 0.14937353538773232 0.030916371605792105 -0.023976556611705394 0.27172528521290795 -0.18555371009740165 0.13683876158938643 -0.16123391185138969 -0.056057839270683099 -0.095950050344732807
leaf_weight=4.1848712265491477 3.3962058797478685 3.6469875201582926 8.6450473442673665 4.1645876467227954 7.9223997816443434 4.3623434752225876 3.4214997440576553 5.3276801854372025 4.7777564525604248 3.7996513098478317 2.6293311715126038
leaf_count=32 32 19 39 26 39 18 28 35 26 23 19
internal_value=-0.00570988 0.0108062 0.0514521 0.0174192 0.0683408 0.154113 -0.0625429 -0.00947013 -0.0820053 -0.117415 -0.173073
internal_weight=56.2784 52.0935 33.5191 24.8741 16.4493 8.52693 18.5744 12.5488 8.42474 7.22115 6.02554
internal_count=336 304 167 128 83 44 137 86 45 51 51
is_linear=0
shrinkage=0.2


Tree=7
num_leaves=12
num_cat=0
split_feature=8 9 2 7 8 5 9 7 8 8 9
split_gain=4.1671 5.84135 3.07399 2.73133 2.36947 2.01478 1.93437 1.64871 1.30304 0.450101 0.00470418
threshold=109.00000000000001 58.500000000000007 1.0000000180025095e-35 45.500000000000007 29.500000000000004 1.0000000180025095e-35 24.500000000000004 57.500000000000007 19.500000000000004 42.500000000000007 15.500000000000002
decision_type=2 2 2 2 2 2 2 2 2 2 2
left_child=1 2 3 5 -4 10 -2 -5 -7 -10 -1
right_child=6 -3 4 7 -6 8 -8 -9 9 -11 -12
leaf_value=-0.22001327214149749 0.1991872662346176 0.14236929312042101 0.17227536033431307 0.046600765524917043 -0.057086440111557363 -0.19266200883002949 0.024001151425765636 -0.096094091719580735 0.0084702859439334637 -0.089419278937880875 -0.23056996138004676
leaf_weight=3.0337495394051119 4.9851343184709531 6.5626067966222754 3.5378619618713847 6.9213300198316556 3.6711897253990173 3.2631451077759266 5.100809320807457 6.0874025300145149 3.6943154260516167 3.8233926668763161 3.8075850531458855
leaf_count=39 24 31 22 37 19 27 26 32 22 21 36
internal_value=-0.00545905 -0.0318192 -0.0620288 -0.0896833 0.0554735 -0.140996 0.11059 -0.0201729 -0.0871246 -0.0413149 -0.225889
internal_weight=54.4885 44.4026 37.84 30.6309 7.20905 17.6222 10.0859 13.0087 10.7809 7.51771 6.84133
internal_count=336 286 255 214 41 145 50 69 70 43 75
is_linear=0
shrinkage=0.2


Tree=8
num_leaves=13
num_cat=0
split_feature=1 0 7 7 9 8 5 8 8 7 8 8
split_gain=2.97991 4.00417 4.07678 2.97047 1.86674 3.75649 4.1881 3.18435 1.25643 0.856522 0.0214388 0.0133717
threshold=1.0000000180025095e-35 1.0000000180025095e-35 43.500000000000007 20.500000000000004 47.500000000000007 109.00000000000001 1.0000000180025095e-35 38.500000000000007 33.500000000000007 33.500000000000007 23.500000000000004 29.500000000000004
decision_type=2 2 2 2 2 2 2 2 2 2 2 2
left_child=1 2 9 -3 5 6 11 -8 -4 10 -1 -5
right_child=-2 3 8 4 -6 -7 7 -9 -10 -11 -12 -13
leaf_value=-0.22115820228230884 0.11323279868574139 0.19689233528202987 -0.081403240557681208 -0.22572856529785998 0.10313513723223566 0.14249690731960471 0.099325474588630155 -0.13054657690383217 0.066556460107150175 -0.11492796023976717 -0.24640096103691353 -0.24736144082155276
leaf_weight=2.2171230912208575 7.3141052648425093 3.5016232356429127 4.1955329142510873 2.4787625335156962 5.3726030737161627 3.9207402169704428 5.3556577563285828 4.3834193050861359 5.0696988850831985 3.9369866624474525 3.4245739579200745 2.12078907340765
leaf_count=31 39 22 24 27 24 17 26 22 27 31 28 18
internal_value=-0.00534251 -0.0242055 -0.0950297 0.024981 -0.000491647 -0.0309826 -0.0784187 -0.00413665 -0.00044346 -0.186521 -0.236481 -0.235703
internal_weight=53.2916 45.9775 18.8439 27.1336 23.632 18.2594 14.3386 9.73908 9.26523 9.57868 5.6417 4.59955
internal_count=336 297 141 156 134 110 93 48 51 90 59 45
is_linear=0
shrinkage=0.2


Tree=9
num_leaves=13
num_cat=0
split_feature=4 8 2 7 1 8 7 5 7 8 9 9
split_gain=2.40655 2.5616 2.39991 3.24707 4.21262 1.96006 1.72599 1.43952 1.15682 0.768208 0.260529 0.0149308
threshold=1.0000000180025095e-35 22.500000000000004 1.0000000180025095e-35 52.500000000000007 1.0000000180025095e-35 32.500000000000007 32.500000000000007 1.0000000180025095e-35 46.500000000000007 9.5000000000000018 24.500000000000004 24.500000000000004
decision_type=2 2 2 2 2 2 2 2 2 2 2 2
left_child=1 8 3 4 5 9 -7 -3 11 -2 -4 -1
right_child=2 7 10 -5 -6 6 -8 -9 -10 -11 -12 -13
leaf_value=-0.22769449802628128 -0.079407392173674415 -0.11750085645583803 0.086800569186981189 0.12292334808744886 0.17197065684694665 -0.11827037723231536 0.043806706413941937 0.040906614473986386 -0.065686105935552755 -0.21421785217322561 0.16137780847153502 -0.25313126172354034
leaf_weight=1.8365981504321127 2.8141552507877448 3.3162556551396829 3.6647223085165015 6.3149177059531203 3.165019989013671 4.5547917522490007 6.2133729085326195 7.4493262469768524 2.5678816884756088 4.2356687672436237 3.8339428901672363 1.85564399510622
leaf_count=24 26 34 21 30 15 29 32 37 16 37 19 16
internal_value=-0.00543184 -0.0670466 0.0247158 -0.00281299 -0.0406538 -0.0784224 -0.0247498 -0.0078896 -0.168779 -0.160404 0.124931 -0.240478
internal_weight=51.8223 17.0257 34.7966 27.2979 20.983 17.818 10.7682 10.7656 6.26012 7.04982 7.49867 3.69224
internal_count=336 127 209 169 139 124 61 71 56 63 40 40
is_linear=0
shrinkage=0.2


Tree=10
num_leaves=12
num_cat=0
split_feature=8 9 8 8 2 7 7 5 8 9 9
split_gain=1.7806 3.51192 2.60356 2.6299 2.01606 2.16389 3.32024 2.35696 0.873308 0.830495 0.00139772
threshold=109.00000000000001 58.500000000000007 2.5000000000000004 77.500000000000014 1.0000000180025095e-35 45.500000000000007 57.500000000000007 1.0000000180025095e-35 22.500000000000004 24.500000000000004 15.500000000000002
decision_type=2 2 2 2 2 2 2 2 2 2 2
left_child=1 2 -1 4 5 7 -7 10 -9 -2 -4
right_child=9 -3 3 -5 -6 6 -8 8 -10 -11 -12
leaf_value=-0.24250179370347946 0.1256096661003335 0.11165926063007195 -0.21341156335680869 -0.20850292494259992 0.098676030388720082 0.14131839475795366 -0.082005314326994927 -0.12300659580005507 0.014359061594928328 0.011147467407367972 -0.22069700219576005
leaf_weight=2.5869657881557933 5.1957790255546552 6.4196035414934149 1.9327782504260618 3.1027437373995772 5.1463089808821669 5.169989734888075 5.4914157837629318 2.844893217086792 5.300503671169281 4.9522786214947701 2.3149728663265705
leaf_count=28 24 31 37 17 28 27 29 26 31 26 32
internal_value=-0.0051276 -0.0239784 -0.0496711 -0.0337354 -0.0145069 -0.039772 0.0262901 -0.096603 -0.0336178 0.0697518 -0.217382
internal_weight=50.4582 40.3102 33.8906 31.3036 28.2009 23.0546 10.6614 12.3931 8.1454 10.1481 4.24775
internal_count=336 286 255 227 210 182 56 126 57 50 69
is_linear=0
shrinkage=0.2


Tree=11
num_leaves=14
num_cat=0
split_feature=4 8 9 6 9 7 0 7 8 7 9 9 7
split_gain=1.58487 1.76745 1.76524 1.60689 1.50433 3.96108 1.29 2.05095 1.22285 2.89166 1.19916 0.194275 0.00787588
threshold=1.0000000180025095e-35 13.500000000000002 16.500000000000004 1.0000000180025095e-35 29.500000000000004 42.500000000000007 1.0000000180025095e-35 35.500000000000007 95.500000000000014 46.500000000000007 33.500000000000007 24.500000000000004 35.500000000000007
decision_type=2 2 2 2 2 2 2 2 2 2 2 2 2
left_child=1 11 8 4 5 -3 7 -4 9 12 -8 -1 -2
right_child=2 3 6 -5 -6 -7 10 -9 -10 -11 -12 -13 -14
leaf_value=-0.13713311945473991 -0.21820310023342146 -0.17341982054824778 -0.12821018231787584 0.09312130713181091 -0.16911866649615159 0.17084820922210425 0.16170092668175182 0.055749110407738348 0.069150505755616515 0.034340015959236948 0.038949360687859286 -0.23362887509885782 -0.23746385800627104
leaf_weight=1.6301921587437385 1.9543683361262068 2.6656613387167436 3.5291776768863201 3.4581653811037532 3.5211117677390575 2.6817524284124374 5.4873066991567612 7.7428566887974739 2.3465377986431122 3.3421933427453041 7.5816707909107208 1.7099821493029592 1.5017302110791204
leaf_count=21 32 29 25 20 22 15 33 39 10 18 35 20 17
internal_value=-0.00498148 -0.0574855 0.0195833 -0.0225172 -0.0676089 -0.000767831 0.0477295 -0.00184697 -0.0553341 -0.0983019 0.0904894 -0.186534 -0.226572
internal_weight=49.1527 15.6669 33.4858 12.3267 8.86853 5.34741 24.341 11.272 9.14483 6.79829 13.069 3.34017 3.4561
internal_count=336 127 209 86 66 44 132 64 77 67 68 41 49
is_linear=0
shrinkage=0.2


Tree=12
num_leaves=12
num_cat=0
split_feature=7 9 8 5 8 8 8 7 9 2 9
split_gain=1.59326 2.07475 2.10066 1.93914 1.86568 2.13158 1.11715 1.04347 0.936376 0.00456314 0.00116136
threshold=20.500000000000004 47.500000000000007 99.500000000000014 1.0000000180025095e-35 38.500000000000007 23.500000000000004 12.500000000000002 45.500000000000007 59.500000000000007 1.0000000180025095e-35 15.500000000000002
decision_type=2 2 2 2 2 2 2 2 2 2 2
left_child=-1 2 3 7 5 6 -5 9 -3 10 -2
right_child=1 8 -4 4 -6 -7 -8 -9 -10 -11 -12
leaf_value=0.10265313239953394 -0.20849253562052827 0.13538600886562299 0.054669416982301204 0.020721370613344454 -0.11661887985275032 0.13676182108559218 -0.13798711357537241 -0.078014727620697152 0.009351169838606118 -0.22879436031396644 -0.21653735635211524
leaf_weight=4.9406030103564254 1.14201068505645 4.2128362581133825 7.2277833223342887 4.2991091627627629 6.2667227052152148 4.0018870532512665 3.0205292366445065 4.4728082977235317 5.3552395179867744 1.054747052490711 1.9322751350700853
leaf_count=34 33 20 36 31 35 20 20 33 27 12 35
internal_value=-0.00490866 -0.0172713 -0.0407824 -0.0671246 -0.0290662 0.0193962 -0.0447714 -0.144943 0.0648445 -0.217443 -0.213549
internal_weight=47.9266 42.9859 33.4179 26.1901 17.5882 11.3215 7.31964 8.60184 9.56808 4.12903 3.07429
internal_count=336 302 255 219 106 71 51 113 47 80 68
is_linear=0
shrinkage=0.2


Tree=13
num_leaves=12
num_cat=0
split_feature=1 0 7 7 9 8 9 9 7 8 7
split_gain=1.19956 2.09688 2.85703 1.49331 1.09909 1.31852 0.850793 2.35176 1.44893 0.704072 0.00712464
threshold=1.0000000180025095e-35 1.0000000180025095e-35 33.500000000000007 20.500000000000004 35.000000000000007 33.500000000000007 47.500000000000007 33.500000000000007 42.500000000000007 99.500000000000014 24.500000000000004
decision_type=2 2 2 2 2 2 2 2 2 2 2
left_child=1 2 10 -3 5 -4 7 8 9 -5 -1
right_child=-2 3 4 6 -6 -7 -8 -9 -10 -11 -12
leaf_value=-0.24145956564739982 0.073204542200906705 0.14027678316930212 -0.18229015888020134 -0.12179940982804874 0.044430917023130012 -0.0076406870657538808 0.069282726445522691 -0.15926186627369504 0.084113381384393962 0.02492357993346922 -0.22318996847872452
leaf_weight=1.3729567620903247 6.7928469330072394 3.4897508323192623 2.8928903527557832 2.9658772535622138 4.9666848406195641 4.2979183830320835 5.1618763059377661 3.8844810351729384 6.4296551179140806 2.3406667858362198 2.2580763138830662
leaf_count=21 39 22 28 39 24 30 24 22 39 10 38
internal_value=-0.00451001 -0.0176875 -0.0744214 0.0192164 -0.027926 -0.0779028 -0.00111175 -0.0243737 0.020272 -0.0570813 -0.230098
internal_weight=46.8537 40.0608 15.7885 24.2723 12.1575 7.19081 20.7826 15.6207 11.7362 5.30654 3.63103
internal_count=336 297 141 156 82 58 134 110 88 49 59
is_linear=0
shrinkage=0.2


Tree=14
num_leaves=12
num_cat=0
split_feature=9 8 8 2 9 6 7 9 8 9 9
split_gain=1.10185 1.08653 2.2422 1.89609 1.49936 1.42764 1.81616 1.30522 2.06944 0.981212 0.771298
threshold=6.5000000000000009 32.500000000000007 38.500000000000007 1.0000000180025095e-35 38.500000000000007 1.0000000180025095e-35 48.500000000000007 18.500000000000004 14.500000000000002 26.500000000000004 20.500000000000004
decision_type=2 2 2 2 2 2 2 2 2 2 2
left_child=-1 3 -3 4 7 6 10 8 -2 -9 -4
right_child=1 2 5 -5 -6 -7 -8 9 -10 -11 -12
leaf_value=-0.11836131313877518 0.11241808030941952 0.19326035396435925 -0.049052938112086088 0.089057964103164425 0.014753745635797861 0.089465263168577058 -0.16103932333511606 -0.27021463894455749 -0.17704940029202798 -0.094078287361989546 0.05577366013402172
leaf_weight=3.152725249528884 2.0099510923028014 3.0302771069109466 4.8570116031914967 4.0732917711138716 5.7466994188725939 6.2082041576504698 3.0948290005326262 2.561763558536768 1.9427972361445425 2.4994033202528954 6.6540353745222092
leaf_count=32 27 20 39 25 32 31 15 27 26 25 37
internal_value=-0.00426495 0.00416356 0.0325247 -0.0317426 -0.0650784 0.00912357 -0.0250255 -0.115974 -0.0298568 -0.183232 0.0115428
internal_weight=45.831 42.6783 23.8444 18.8339 14.7606 20.8141 14.6059 9.01392 3.95275 5.06117 11.511
internal_count=336 304 142 162 137 122 91 105 53 52 76
is_linear=0
shrinkage=0.2


Tree=15
num_leaves=11
num_cat=0
split_feature=9 9 9 7 9 7 8 7 8 7
split_gain=1.25083 2.5569 1.76557 1.3 3.1571 2.0899 3.50623 1.52803 0.372532 1.04913
threshold=79.000000000000014 58.500000000000007 42.000000000000007 20.500000000000004 38.500000000000007 35.500000000000007 99.500000000000014 57.500000000000007 155.50000000000003 26.500000000000004
decision_type=2 2 2 2 2 2 2 2 2 2
left_child=1 2 3 -1 5 8 7 -7 9 -5
right_child=-2 -3 -4 4 -6 6 -8 -9 -10 -11
leaf_value=0.11869353841427309 -0.13832561454395834 0.14668282145357722 -0.11424980060843226 -0.057092928870850962 0.21288978104411599 0.0069141480559926395 0.19795011613700075 -0.13258027381773571 -0.044666370800034105 -0.23346150312323896
leaf_weight=3.6153232939541331 2.6101360172033301 4.5097568705677977 5.7925155647099009 2.6753457961604061 2.3602112568914881 11.166077768430116 3.1874604523181906 4.3705338761210433 1.9832178652286527 2.7214854434132576
leaf_count=27 12 24 32 40 12 89 14 28 12 46
internal_value=-0.00395028 0.00432537 -0.0126263 0.00572348 -0.00862512 -0.0286534 0.00687433 -0.0323264 -0.118792 -0.146031
internal_weight=44.9921 42.3819 37.8722 32.0797 28.4643 26.1041 18.7241 15.5366 7.38005 5.39683
internal_count=336 324 300 268 241 229 131 117 98 86
is_linear=0
shrinkage=0.2


Tree=16
num_leaves=9
num_cat=0
split_feature=8 9 9 9 8 9 8 8
split_gain=2.16658 1.0483 3.15625 0.881717 0.976418 1.23509 0.967141 0.963643
threshold=2.5000000000000004 66.500000000000014 58.500000000000007 42.000000000000007 6.5000000000000009 7.5000000000000009 174.00000000000003 77.500000000000014
decision_type=2 2 2 2 2 2 2 2
left_child=-1 2 3 4 -2 -6 7 -7
right_child=1 -3 -4 -5 5 6 -8 -9
leaf_value=-0.1815697384113911 0.13893740999307808 -0.097579235937864037 0.222844735547824 -0.075181277939645144 -0.097766536327086512 0.033207303311666242 0.13163978835926779 -0.06252108827694873
leaf_weight=2.574722575955092 2.3136600134894278 3.4794718697667113 2.7658654749393454 5.1865392923355094 4.0911244712770012 15.04321307316423 2.7987922579050055 5.8388517014682284
leaf_count=32 25 18 14 28 37 134 16 32
internal_value=-0.0035422 0.00749824 0.01711 0.000977365 0.0141065 0.00370699 0.0212376 0.00644061
internal_weight=44.0922 41.5175 38.038 35.2722 30.0856 27.772 23.6809 20.8821
internal_count=336 304 286 272 244 219 182 166
is_linear=0
shrinkage=0.2


Tree=17
num_leaves=13
num_cat=0
split_feature=1 6 0 7 8 9 9 7 7 8 8 7
split_gain=0.779969 1.56923 1.55315 1.80476 1.18017 0.975925 0.962597 2.42905 1.88613 0.311101 0.369211 0.070104
threshold=1.0000000180025095e-35 1.0000000180025095e-35 1.0000000180025095e-35 43.500000000000007 35.500000000000007 25.500000000000004 14.500000000000002 37.500000000000007 42.500000000000007 40.500000000000007 23.500000000000004 25.500000000000004
decision_type=2 2 2 2 2 2 2 2 2 2 2 2
left_child=1 2 3 9 -3 -5 8 11 -4 10 -1 -8
right_child=-2 4 6 5 -6 -7 7 -9 -10 -11 -12 -13
leaf_value=-0.21897897444062364 0.06121535323072394 -0.032690792903459095 -0.19789145356278781 0.060396522833160327 0.11074140791968685 -0.095144377003964054 0.15141135021075444 -0.054504954849029945 0.057022833993205985 -0.2475893814964521 -0.048678253229825136 0.10631397136855902
leaf_weight=1.1030641924589892 6.4458303693681946 3.7461790405213815 2.4426376922056106 2.7360489033162594 5.9219082780182362 3.9330692328512669 2.5492709893733245 6.2880662269890308 2.2128213010728359 2.2941422127187252 0.94585778098553408 3.0029957331717014
leaf_count=34 39 28 27 19 32 23 18 38 14 29 11 24
internal_value=-0.00301033 -0.0141462 -0.0385065 -0.0966709 0.0551645 -0.0313327 0.000322653 0.0306172 -0.0767262 -0.197003 -0.140362 0.12702
internal_weight=43.6219 37.1761 27.508 11.0122 9.66809 6.66912 16.4958 11.8403 4.65546 4.34306 2.04892 5.55227
internal_count=336 297 237 116 60 42 121 80 41 74 45 42
is_linear=0
shrinkage=0.2


Tree=18
num_leaves=14
num_cat=0
split_feature=4 9 9 8 9 7 5 8 9 7 6 9 0
split_gain=0.541559 1.50106 1.78513 1.5541 0.700463 0.600218 2.02673 0.388291 1.09784 0.85558 0.333701 0.325083 0.292547
threshold=1.0000000180025095e-35 16.500000000000004 8.5000000000000018 58.500000000000007 16.500000000000004 46.500000000000007 1.0000000180025095e-35 77.500000000000014 46.500000000000007 56.500000000000007 1.0000000180025095e-35 30.500000000000004 1.0000000180025095e-35
decision_type=2 2 2 2 2 2 2 2 2 2 2 2 2
left_child=1 2 -1 10 5 6 -2 8 9 12 11 -3 -6
right_child=4 3 -4 -5 7 -7 -8 -9 -10 -11 -12 -13 -14
leaf_value=-0.042650141541276089 0.027285049945734031 -0.12873965318602409 0.20514956419868208 0.024410543351636598 0.096680494581534396 0.026488147482830671 -0.24590699154969287 -0.01215207868458346 0.11657420729360762 -0.080306462142036267 -0.090201064751538551 -0.25618033336029422 0.013175607849047711
leaf_weight=3.1337215304374686 2.5804193662479546 1.5029265480115994 1.8489771327003834 2.9750913791358471 2.7408625725656766 3.1364689320325851 1.8758672401309011 6.3096242174506179 5.7224234119057646 3.1114093661308289 1.8598154745995996 1.7134182471781967 4.3281741961836815
leaf_count=27 37 25 25 20 23 18 22 33 31 17 14 16 28
internal_value=-0.00296793 -0.0369727 0.0493032 -0.0903666 0.0119025 -0.040539 -0.0877147 0.0298283 0.0464844 0.00708692 -0.157636 -0.19663 0.0455528
internal_weight=42.8392 13.034 4.9827 8.05125 29.8052 7.59276 4.45629 22.2125 15.9029 10.1804 5.07616 3.21634 7.06904
internal_count=336 127 52 75 209 77 59 132 99 68 55 41 51
is_linear=0
shrinkage=0.2


Tree=19
num_leaves=15
num_cat=0
split_feature=5 7 7 8 8 8 9 9 7 0 8 9 7 9
split_gain=0.634917 1.25264 1.34881 1.87273 0.703183 1.93018 1.44957 1.4069 1.88235 0.848811 0.24475 0.0707511 0.00183888 0.000393335
threshold=1.0000000180025095e-35 21.500000000000004 49.500000000000007 48.500000000000007 109.00000000000001 72.500000000000014 17.500000000000004 58.500000000000007 53.500000000000007 1.0000000180025095e-35 23.500000000000004 38.500000000000007 40.500000000000007 22.500000000000004
decision_type=2 2 2 2 2 2 2 2 2 2 2 2 2 2
left_child=1 -1 3 11 5 6 10 8 9 -8 -2 12 13 -3
right_child=4 2 -4 -5 -6 -7 7 -9 -10 -11 -12 -13 -14 -15
leaf_value=0.10986783574632236 0.063231871708175055 -0.20590563130014874 0.026269054665334003 -0.027879529034538449 0.077704385074167118 -0.1426287173498316 -0.058675526160700042 0.097223400357754675 -0.1689024640194533 0.079392588961244279 0.14470047268227129 -0.28043476332178668 -0.2206534517258204 -0.21307294206405439
leaf_weight=1.9350526742637146 2.8630060628056624 0.70539691019803175 4.1813473086804152 4.1163323912769556 5.5633915513753882 3.321233343333005 3.5772580234333855 3.4989177137613288 3.5082807689905167 3.5471991524100304 3.0425958186388016 0.90676108561456192 0.96284831874072541 0.54129906184971333
leaf_count=17 25 34 28 36 29 21 28 21 20 20 19 7 16 15
internal_value=-0.00284847 -0.0389276 -0.0641534 -0.116429 0.013804 -0.00141541 0.0219911 -0.0127838 -0.0489839 0.0100673 0.105205 -0.233393 -0.214088 -0.209018
internal_weight=42.2709 13.349 11.414 7.23264 28.9219 23.3585 20.0373 14.1317 10.6327 7.12446 5.9056 3.11631 2.20954 1.2467
internal_count=336 153 136 108 183 154 133 89 68 48 44 72 65 49
is_linear=0
shrinkage=0.2


Tree=20
num_leaves=12
num_cat=0
split_feature=1 9 8 9 8 9 8 8 7 7 7
split_gain=0.563111 0.965048 0.725894 2.13126 2.00105 1.23359 1.29898 0.993695 0.908386 0.479264 0.0375222
threshold=1.0000000180025095e-35 7.5000000000000009 77.500000000000014 33.500000000000007 32.500000000000007 22.500000000000004 12.500000000000002 11.500000000000002 45.500000000000007 34.500000000000007 46.500000000000007
decision_type=2 2 2 2 2 2 2 2 2 2 2
left_child=1 -1 4 -4 5 6 -3 10 9 -6 -7
right_child=-2 2 3 -5 8 7 -8 -9 -10 -11 -12
leaf_value=-0.11705297584393021 0.052434996513839233 0.02299796950927134 0.036477424014444752 -0.14981876223486257 0.093713562297239428 -0.089145974819373863 -0.21852287157173703 0.064593342925208325 0.15087568622395534 -0.037256342644911497 -0.050026059883524591
leaf_weight=3.2122653145343056 6.2858516145497552 1.4223968181759148 5.4825765714049322 4.4501200914382935 2.1316224103793484 1.8677885141223654 2.383104657754302 5.2058998527936637 4.7039376944303513 2.3494207616895437 2.0650508590042591
leaf_count=39 39 23 34 25 21 25 33 36 24 21 16
internal_value=-0.00271374 -0.0125412 -0.00207026 -0.0469884 0.0180912 -0.0325702 -0.128249 0.00727171 0.0894875 0.0250458 -0.0686049
internal_weight=41.56 35.2742 32.0619 9.9327 22.1292 12.9442 3.8055 9.13874 9.18498 4.48104 3.93284
internal_count=336 297 258 59 199 133 56 77 66 42 41
is_linear=0
shrinkage=0.2


Tree=21
num_leaves=12
num_cat=0
split_feature=9 9 8 8 8 9 8 2 9 9 7
split_gain=0.535979 0.97242 1.19895 1.80374 1.57309 1.06904 1.82818 0.963968 1.52344 1.91718 0.683088
threshold=79.000000000000014 58.500000000000007 95.500000000000014 37.500000000000007 32.500000000000007 32.500000000000007 58.500000000000007 1.0000000180025095e-35 38.500000000000007 10.500000000000002 32.500000000000007
decision_type=2 2 2 2 2 2 2 2 2 2 2
left_child=1 2 3 4 7 6 -5 8 9 -1 -4
right_child=-2 -3 10 5 -6 -7 -8 -9 -10 -11 -12
leaf_value=0.057149507444765907 -0.096729082563013935 0.09810456783796416 0.0035178993162571755 -0.14449426676000593 0.16731776189336597 -0.18557453720576189 0.084401358248259145 0.076658123021509192 0.09158815765395123 -0.14936474734554439 0.11474556260511859
leaf_weight=2.6182920476421767 2.2799543440341941 3.8744908869266501 4.6812971271574479 3.2464832635596377 2.2088051401078692 3.5789574310183525 2.4483338613063097 3.549415490590035 2.5626641754060975 5.7404724340885878 4.1811967678368092
leaf_count=32 12 24 28 33 17 18 22 25 17 87 21
internal_value=-0.00249512 0.00305791 -0.00751936 -0.0292075 0.0101071 -0.0999182 -0.0460867 -0.0138892 -0.0433167 -0.0846764 0.0559935
internal_weight=40.9704 38.6904 34.8159 25.9534 16.6796 9.27377 5.69482 14.4708 10.9214 8.35876 8.86249
internal_count=336 324 300 251 178 73 55 161 136 119 49
is_linear=0
shrinkage=0.2


Tree=22
num_leaves=14
num_cat=0
split_feature=5 9 7 9 7 6 7 7 8 4 7 9 7
split_gain=0.475 1.20493 1.19414 1.777 1.22004 0.831768 1.16675 0.656141 1.0527 1.11709 0.596211 0.535858 0.433953
threshold=1.0000000180025095e-35 10.500000000000002 49.500000000000007 32.500000000000007 25.500000000000004 1.0000000180025095e-35 42.500000000000007 24.500000000000004 87.500000000000014 1.0000000180025095e-35 43.500000000000007 42.000000000000007 38.500000000000007
decision_type=2 2 2 2 2 2 2 2 2 2 2 2 2
left_child=1 12 3 4 -3 7 -7 -2 9 -9 -6 -11 -1
right_child=5 2 -4 -5 10 6 -8 8 -10 11 -12 -13 -14
leaf_value=-0.072559503511552756 -0.089777422280882979 0.15620670993304797 0.098009464354419665 -0.19577016472641001 -0.13725017087559527 0.15095064517065887 -0.0042850498200214075 -0.047695969938872061 -0.085076145881438359 0.11538808118734707 0.048828255194107904 0.010013924873616381 -0.23704410899636238
leaf_weight=1.2520281476899975 3.376661963760859 1.6890634330920855 3.1754796821624041 2.2519096061587334 1.6312640560790899 3.6092087160795918 4.1791241243481636 4.3395634153857836 3.8208966702222815 5.3475299784913659 1.1920899534597991 3.0208593010902405 1.3158899266272781
leaf_count=27 28 21 20 22 35 22 22 32 22 39 13 18 15
internal_value=-0.00236904 -0.0347178 -0.00316608 -0.0506624 0.0217532 0.012241 0.0676531 -0.00943975 0.00697236 0.0346486 -0.0586833 0.0773496 -0.156847
internal_weight=40.2016 12.5077 9.93981 6.76433 4.51242 27.6938 7.78833 19.9055 16.5288 12.708 2.82335 8.36839 2.56792
internal_count=336 153 111 91 69 183 44 139 111 89 48 57 42
is_linear=0
shrinkage=0.2


Tree=23
num_leaves=13
num_cat=0
split_feature=8 9 9 8 8 9 2 7 9 8 7 9
split_gain=1.45313 0.585575 1.67863 0.804082 1.66959 0.956413 1.11212 1.30337 0.7218 0.540565 0.475953 0.128081
threshold=2.5000000000000004 66.500000000000014 58.500000000000007 95.500000000000014 37.500000000000007 38.500000000000007 1.0000000180025095e-35 45.500000000000007 38.500000000000007 67.500000000000014 32.500000000000007 16.500000000000004
decision_type=2 2 2 2 2 2 2 2 2 2 2 2
left_child=-1 2 3 4 5 6 7 -2 9 11 -5 -6
right_child=1 -3 -4 10 8 -7 -8 -9 -10 -11 -12 -13
leaf_value=-0.16454938319823034 -0.12260664688694185 -0.079628877968624057 0.17792274620973425 0.0093527491628925506 -0.043835871956074204 0.11886477522440092 0.11218799118171092 0.032460620866734687 -0.17980098921249657 -0.12713274436003513 0.10345510046647677 0.02626990669984261
leaf_weight=2.0917147179134181 3.9325548824854213 2.8968273773789397 2.3298887312412253 4.4888080209493619 2.0188449067063612 3.3240036591887465 2.584004431962966 4.832406684756279 2.3694399818778038 2.3763921968638897 4.1261612102389336 2.1552506890147924
leaf_count=32 80 18 14 28 23 21 16 33 12 21 21 17
internal_value=-0.0023221 0.0067426 0.0139869 0.00212797 -0.0169677 0.0245149 -0.00311924 -0.037113 -0.0852052 -0.0509881 0.0544233 -0.00763748
internal_weight=39.5263 37.4346 34.5378 32.2079 23.5929 14.673 11.349 8.76496 8.91993 6.55049 8.61497 4.1741
internal_count=336 304 286 272 223 150 129 113 73 61 49 40
is_linear=0
shrinkage=0.2


end of trees

feature_importances:
ESR=80
Duration=77
Ageatonset=65
ModSevereHistologyYes=15
UCEIS2=11
MontrealClassificationE3=10
StenosisYes=9
PolypYes=8
UCEIS3=7

parameters:
[boosting: gbdt]
[objective: binary]
[metric: auc]
[tree_learner: serial]
[device_type: cpu]
[data_sample_strategy: bagging]
[data: ]
[valid: ]
[num_iterations: 24]
[learning_rate: 0.2]
[num_leaves: 31]
[num_threads: 0]
[seed: 0]
[deterministic: 0]
[force_col_wise: 0]
[force_row_wise: 0]
[histogram_pool_size: -1]
[max_depth: 8]
[min_data_in_leaf: 20]
[min_sum_hessian_in_leaf: 0.001]
[bagging_fraction: 1]
[pos_bagging_fraction: 1]
[neg_bagging_fraction: 1]
[bagging_freq: 0]
[bagging_seed: 3]
[bagging_by_query: 0]
[feature_fraction: 1]
[feature_fraction_bynode: 1]
[feature_fraction_seed: 2]
[extra_trees: 0]
[extra_seed: 6]
[early_stopping_round: 0]
[early_stopping_min_delta: 0]
[first_metric_only: 0]
[max_delta_step: 0]
[lambda_l1: 0]
[lambda_l2: 0]
[linear_lambda: 0]
[min_gain_to_split: 0]
[drop_rate: 0.1]
[max_drop: 50]
[skip_drop: 0.5]
[xgboost_dart_mode: 0]
[uniform_drop: 0]
[drop_seed: 4]
[top_rate: 0.2]
[other_rate: 0.1]
[min_data_per_group: 100]
[max_cat_threshold: 32]
[cat_l2: 10]
[cat_smooth: 10]
[max_cat_to_onehot: 4]
[top_k: 20]
[monotone_constraints: ]
[monotone_constraints_method: basic]
[monotone_penalty: 0]
[feature_contri: ]
[forcedsplits_filename: ]
[refit_decay_rate: 0.9]
[cegb_tradeoff: 1]
[cegb_penalty_split: 0]
[cegb_penalty_feature_lazy: ]
[cegb_penalty_feature_coupled: ]
[path_smooth: 0]
[interaction_constraints: ]
[verbosity: -1]
[saved_feature_importance_type: 0]
[use_quantized_grad: 0]
[num_grad_quant_bins: 4]
[quant_train_renew_leaf: 0]
[stochastic_rounding: 1]
[linear_tree: 0]
[max_bin: 255]
[max_bin_by_feature: ]
[min_data_in_bin: 3]
[bin_construct_sample_cnt: 200000]
[data_random_seed: 1]
[is_enable_sparse: 1]
[enable_bundle: 1]
[use_missing: 1]
[zero_as_missing: 0]
[feature_pre_filter: 1]
[pre_partition: 0]
[two_round: 0]
[header: 0]
[label_column: ]
[weight_column: ]
[group_column: ]
[ignore_column: ]
[categorical_feature: ]
[forcedbins_filename: ]
[precise_float_parser: 0]
[parser_config_file: ]
[objective_seed: 5]
[num_class: 1]
[is_unbalance: 0]
[scale_pos_weight: 1]
[sigmoid: 1]
[boost_from_average: 1]
[reg_sqrt: 0]
[alpha: 0.9]
[fair_c: 1]
[poisson_max_delta_step: 0.7]
[tweedie_variance_power: 1.5]
[lambdarank_truncation_level: 30]
[lambdarank_norm: 1]
[label_gain: ]
[lambdarank_position_bias_regularization: 0]
[eval_at: ]
[multi_error_top_k: 1]
[auc_mu_weights: ]
[num_machines: 1]
[local_listen_port: 12400]
[time_out: 120]
[machine_list_filename: ]
[machines: ]
[gpu_platform_id: -1]
[gpu_device_id: -1]
[gpu_use_dp: 0]
[num_gpu: 1]

end of parameters
